<?xml version="1.0"?>
<opencv_storage>
<opencv_ml_svm>
  <format>3</format>
  <svmType>C_SVC</svmType>
  <kernel>
    <type>INTER</type>
    <gamma>1.0000000000000001e-05</gamma></kernel>
  <C>1.0000000000000001e-01</C>
  <term_criteria><epsilon>1.1920928955078125e-07</epsilon>
    <iterations>1000</iterations></term_criteria>
  <var_count>3</var_count>
  <class_count>2</class_count>
  <class_labels type_id="opencv-matrix">
    <rows>2</rows>
    <cols>1</cols>
    <dt>i</dt>
    <data>
      0 1</data></class_labels>
  <sv_total>492</sv_total>
  <support_vectors>
    <_>
      0. 0. 0.</_>
    <_>
      0. 0. 0.</_>
    <_>
      31. 29. 65.</_>
    <_>
      43. 40. 65.</_>
    <_>
      17. 13. 32.</_>
    <_>
      17. 17. 33.</_>
    <_>
      11. 9. 28.</_>
    <_>
      7. 2. 31.</_>
    <_>
      13. 8. 29.</_>
    <_>
      11. 9. 29.</_>
    <_>
      9. 7. 27.</_>
    <_>
      21. 18. 43.</_>
    <_>
      18. 15. 37.</_>
    <_>
      62. 71. 82.</_>
    <_>
      52. 78. 102.</_>
    <_>
      48. 66. 89.</_>
    <_>
      85. 98. 117.</_>
    <_>
      102. 112. 129.</_>
    <_>
      122. 137. 133.</_>
    <_>
      114. 131. 119.</_>
    <_>
      114. 136. 134.</_>
    <_>
      94. 115. 117.</_>
    <_>
      110. 134. 134.</_>
    <_>
      73. 115. 114.</_>
    <_>
      86. 109. 114.</_>
    <_>
      117. 139. 141.</_>
    <_>
      68. 88. 88.</_>
    <_>
      95. 96. 130.</_>
    <_>
      85. 87. 118.</_>
    <_>
      9. 2. 53.</_>
    <_>
      5. 0. 50.</_>
    <_>
      117. 136. 157.</_>
    <_>
      110. 130. 155.</_>
    <_>
      94. 115. 136.</_>
    <_>
      101. 121. 149.</_>
    <_>
      93. 109. 138.</_>
    <_>
      67. 84. 111.</_>
    <_>
      100. 123. 153.</_>
    <_>
      30. 13. 0.</_>
    <_>
      67. 42. 15.</_>
    <_>
      56. 28. 5.</_>
    <_>
      22. 18. 2.</_>
    <_>
      7. 12. 8.</_>
    <_>
      5. 11. 6.</_>
    <_>
      0. 5. 0.</_>
    <_>
      17. 2. 2.</_>
    <_>
      1. 7. 2.</_>
    <_>
      1. 5. 1.</_>
    <_>
      14. 15. 13.</_>
    <_>
      12. 12. 12.</_>
    <_>
      15. 17. 12.</_>
    <_>
      2. 4. 6.</_>
    <_>
      1. 1. 0.</_>
    <_>
      1. 2. 3.</_>
    <_>
      3. 1. 0.</_>
    <_>
      3. 0. 0.</_>
    <_>
      9. 3. 3.</_>
    <_>
      2. 1. 0.</_>
    <_>
      2. 0. 0.</_>
    <_>
      1. 2. 4.</_>
    <_>
      3. 5. 6.</_>
    <_>
      1. 2. 2.</_>
    <_>
      2. 0. 0.</_>
    <_>
      1. 0. 1.</_>
    <_>
      1. 0. 1.</_>
    <_>
      1. 0. 0.</_>
    <_>
      3. 2. 3.</_>
    <_>
      9. 1. 2.</_>
    <_>
      8. 1. 2.</_>
    <_>
      9. 0. 0.</_>
    <_>
      8. 4. 4.</_>
    <_>
      3. 1. 2.</_>
    <_>
      1. 0. 0.</_>
    <_>
      1. 7. 6.</_>
    <_>
      1. 8. 6.</_>
    <_>
      3. 3. 3.</_>
    <_>
      0. 0. 6.</_>
    <_>
      3. 0. 11.</_>
    <_>
      1. 2. 6.</_>
    <_>
      3. 2. 6.</_>
    <_>
      4. 0. 12.</_>
    <_>
      0. 1. 2.</_>
    <_>
      1. 0. 1.</_>
    <_>
      2. 1. 3.</_>
    <_>
      3. 1. 1.</_>
    <_>
      3. 1. 2.</_>
    <_>
      1. 2. 0.</_>
    <_>
      3. 5. 3.</_>
    <_>
      1. 4. 2.</_>
    <_>
      1. 3. 2.</_>
    <_>
      1. 3. 1.</_>
    <_>
      1. 0. 4.</_>
    <_>
      2. 0. 2.</_>
    <_>
      1. 0. 1.</_>
    <_>
      1. 3. 3.</_>
    <_>
      3. 0. 3.</_>
    <_>
      2. 0. 4.</_>
    <_>
      1. 0. 3.</_>
    <_>
      1. 0. 2.</_>
    <_>
      1. 0. 2.</_>
    <_>
      1. 0. 2.</_>
    <_>
      2. 1. 4.</_>
    <_>
      2. 0. 1.</_>
    <_>
      3. 0. 1.</_>
    <_>
      3. 0. 2.</_>
    <_>
      77. 78. 104.</_>
    <_>
      29. 35. 48.</_>
    <_>
      53. 52. 62.</_>
    <_>
      64. 61. 93.</_>
    <_>
      78. 71. 86.</_>
    <_>
      98. 83. 115.</_>
    <_>
      86. 91. 89.</_>
    <_>
      105. 102. 111.</_>
    <_>
      116. 107. 134.</_>
    <_>
      105. 109. 114.</_>
    <_>
      123. 124. 134.</_>
    <_>
      127. 121. 144.</_>
    <_>
      130. 130. 146.</_>
    <_>
      155. 153. 175.</_>
    <_>
      196. 186. 209.</_>
    <_>
      197. 193. 242.</_>
    <_>
      188. 176. 194.</_>
    <_>
      125. 114. 152.</_>
    <_>
      64. 66. 97.</_>
    <_>
      70. 74. 98.</_>
    <_>
      95. 97. 128.</_>
    <_>
      89. 88. 130.</_>
    <_>
      106. 104. 140.</_>
    <_>
      125. 154. 169.</_>
    <_>
      114. 145. 160.</_>
    <_>
      111. 144. 160.</_>
    <_>
      110. 142. 161.</_>
    <_>
      108. 137. 158.</_>
    <_>
      115. 142. 166.</_>
    <_>
      115. 144. 165.</_>
    <_>
      126. 150. 168.</_>
    <_>
      147. 176. 180.</_>
    <_>
      145. 174. 178.</_>
    <_>
      137. 167. 173.</_>
    <_>
      139. 169. 175.</_>
    <_>
      133. 160. 171.</_>
    <_>
      136. 166. 171.</_>
    <_>
      91. 129. 161.</_>
    <_>
      102. 140. 159.</_>
    <_>
      83. 110. 123.</_>
    <_>
      92. 126. 143.</_>
    <_>
      73. 98. 109.</_>
    <_>
      12. 17. 22.</_>
    <_>
      0. 2. 6.</_>
    <_>
      103. 131. 144.</_>
    <_>
      1. 4. 6.</_>
    <_>
      86. 107. 117.</_>
    <_>
      56. 70. 82.</_>
    <_>
      9. 12. 15.</_>
    <_>
      1. 1. 0.</_>
    <_>
      0. 1. 2.</_>
    <_>
      75. 94. 105.</_>
    <_>
      0. 1. 1.</_>
    <_>
      1. 3. 2.</_>
    <_>
      0. 2. 0.</_>
    <_>
      3. 1. 2.</_>
    <_>
      1. 3. 1.</_>
    <_>
      0. 1. 0.</_>
    <_>
      15. 17. 20.</_>
    <_>
      0. 2. 0.</_>
    <_>
      0. 0. 0.</_>
    <_>
      2. 0. 2.</_>
    <_>
      1. 0. 2.</_>
    <_>
      3. 0. 3.</_>
    <_>
      8. 11. 12.</_>
    <_>
      108. 134. 148.</_>
    <_>
      2. 0. 0.</_>
    <_>
      0. 0. 1.</_>
    <_>
      1. 0. 2.</_>
    <_>
      1. 1. 2.</_>
    <_>
      1. 0. 1.</_>
    <_>
      0. 0. 1.</_>
    <_>
      94. 115. 127.</_>
    <_>
      0. 0. 0.</_>
    <_>
      1. 0. 0.</_>
    <_>
      0. 1. 0.</_>
    <_>
      0. 0. 1.</_>
    <_>
      71. 81. 90.</_>
    <_>
      3. 1. 0.</_>
    <_>
      1. 0. 1.</_>
    <_>
      2. 0. 0.</_>
    <_>
      116. 147. 164.</_>
    <_>
      2. 0. 0.</_>
    <_>
      0. 0. 1.</_>
    <_>
      0. 0. 0.</_>
    <_>
      0. 1. 3.</_>
    <_>
      122. 143. 157.</_>
    <_>
      1. 0. 1.</_>
    <_>
      0. 0. 1.</_>
    <_>
      0. 1. 1.</_>
    <_>
      103. 116. 128.</_>
    <_>
      1. 0. 1.</_>
    <_>
      0. 1. 0.</_>
    <_>
      3. 1. 2.</_>
    <_>
      1. 0. 4.</_>
    <_>
      120. 143. 160.</_>
    <_>
      3. 5. 14.</_>
    <_>
      114. 136. 150.</_>
    <_>
      134. 112. 151.</_>
    <_>
      148. 127. 168.</_>
    <_>
      170. 156. 181.</_>
    <_>
      159. 143. 170.</_>
    <_>
      157. 139. 167.</_>
    <_>
      180. 164. 185.</_>
    <_>
      169. 155. 180.</_>
    <_>
      193. 181. 200.</_>
    <_>
      144. 128. 160.</_>
    <_>
      134. 114. 155.</_>
    <_>
      1. 1. 4.</_>
    <_>
      0. 0. 4.</_>
    <_>
      1. 0. 6.</_>
    <_>
      5. 1. 13.</_>
    <_>
      8. 4. 17.</_>
    <_>
      0. 0. 2.</_>
    <_>
      1. 1. 2.</_>
    <_>
      1. 1. 3.</_>
    <_>
      0. 2. 4.</_>
    <_>
      1. 1. 1.</_>
    <_>
      1. 2. 1.</_>
    <_>
      3. 3. 2.</_>
    <_>
      8. 5. 14.</_>
    <_>
      2. 2. 0.</_>
    <_>
      9. 6. 15.</_>
    <_>
      0. 2. 2.</_>
    <_>
      0. 1. 1.</_>
    <_>
      0. 1. 1.</_>
    <_>
      0. 1. 1.</_>
    <_>
      0. 0. 1.</_>
    <_>
      0. 1. 0.</_>
    <_>
      0. 0. 1.</_>
    <_>
      0. 1. 0.</_>
    <_>
      0. 0. 1.</_>
    <_>
      0. 0. 1.</_>
    <_>
      0. 1. 0.</_>
    <_>
      0. 0. 1.</_>
    <_>
      0. 2. 1.</_>
    <_>
      0. 2. 0.</_>
    <_>
      0. 2. 0.</_>
    <_>
      0. 0. 0.</_>
    <_>
      0. 0. 0.</_>
    <_>
      0. 1. 5.</_>
    <_>
      0. 1. 3.</_>
    <_>
      0. 0. 15.</_>
    <_>
      0. 1. 14.</_>
    <_>
      0. 2. 15.</_>
    <_>
      0. 2. 14.</_>
    <_>
      1. 3. 14.</_>
    <_>
      3. 4. 16.</_>
    <_>
      3. 3. 18.</_>
    <_>
      1. 3. 22.</_>
    <_>
      11. 12. 33.</_>
    <_>
      2. 4. 23.</_>
    <_>
      7. 7. 28.</_>
    <_>
      12. 13. 33.</_>
    <_>
      5. 5. 23.</_>
    <_>
      10. 11. 31.</_>
    <_>
      7. 7. 26.</_>
    <_>
      8. 9. 29.</_>
    <_>
      3. 3. 21.</_>
    <_>
      3. 3. 20.</_>
    <_>
      2. 2. 18.</_>
    <_>
      0. 1. 15.</_>
    <_>
      103. 115. 123.</_>
    <_>
      100. 107. 114.</_>
    <_>
      104. 115. 123.</_>
    <_>
      162. 164. 168.</_>
    <_>
      175. 176. 178.</_>
    <_>
      110. 121. 125.</_>
    <_>
      169. 169. 169.</_>
    <_>
      190. 188. 186.</_>
    <_>
      183. 181. 178.</_>
    <_>
      190. 187. 183.</_>
    <_>
      196. 193. 189.</_>
    <_>
      113. 119. 132.</_>
    <_>
      126. 132. 146.</_>
    <_>
      130. 136. 151.</_>
    <_>
      139. 143. 159.</_>
    <_>
      136. 140. 157.</_>
    <_>
      130. 134. 152.</_>
    <_>
      122. 125. 144.</_>
    <_>
      102. 104. 122.</_>
    <_>
      112. 116. 135.</_>
    <_>
      116. 119. 138.</_>
    <_>
      113. 116. 136.</_>
    <_>
      114. 112. 111.</_>
    <_>
      105. 114. 133.</_>
    <_>
      102. 108. 128.</_>
    <_>
      75. 92. 110.</_>
    <_>
      76. 95. 112.</_>
    <_>
      78. 98. 116.</_>
    <_>
      77. 97. 115.</_>
    <_>
      91. 109. 127.</_>
    <_>
      88. 107. 125.</_>
    <_>
      114. 110. 105.</_>
    <_>
      94. 113. 130.</_>
    <_>
      106. 126. 144.</_>
    <_>
      96. 116. 134.</_>
    <_>
      91. 110. 128.</_>
    <_>
      68. 74. 89.</_>
    <_>
      75. 91. 107.</_>
    <_>
      109. 129. 146.</_>
    <_>
      86. 104. 119.</_>
    <_>
      103. 124. 139.</_>
    <_>
      108. 128. 143.</_>
    <_>
      124. 143. 158.</_>
    <_>
      127. 146. 160.</_>
    <_>
      111. 130. 142.</_>
    <_>
      123. 143. 156.</_>
    <_>
      110. 130. 142.</_>
    <_>
      117. 134. 143.</_>
    <_>
      122. 141. 150.</_>
    <_>
      120. 140. 150.</_>
    <_>
      135. 154. 162.</_>
    <_>
      136. 156. 165.</_>
    <_>
      134. 153. 161.</_>
    <_>
      72. 86. 89.</_>
    <_>
      148. 165. 171.</_>
    <_>
      120. 137. 143.</_>
    <_>
      114. 122. 124.</_>
    <_>
      86. 91. 93.</_>
    <_>
      117. 109. 110.</_>
    <_>
      29. 40. 48.</_>
    <_>
      9. 15. 20.</_>
    <_>
      21. 36. 43.</_>
    <_>
      16. 18. 22.</_>
    <_>
      9. 20. 28.</_>
    <_>
      13. 18. 23.</_>
    <_>
      54. 70. 84.</_>
    <_>
      6. 24. 37.</_>
    <_>
      29. 32. 40.</_>
    <_>
      43. 45. 53.</_>
    <_>
      14. 16. 22.</_>
    <_>
      9. 18. 24.</_>
    <_>
      13. 18. 21.</_>
    <_>
      14. 19. 21.</_>
    <_>
      3. 12. 15.</_>
    <_>
      13. 18. 19.</_>
    <_>
      9. 13. 15.</_>
    <_>
      3. 11. 12.</_>
    <_>
      9. 14. 14.</_>
    <_>
      124. 107. 153.</_>
    <_>
      127. 109. 153.</_>
    <_>
      128. 108. 153.</_>
    <_>
      95. 74. 125.</_>
    <_>
      101. 75. 113.</_>
    <_>
      112. 86. 124.</_>
    <_>
      123. 98. 136.</_>
    <_>
      132. 105. 142.</_>
    <_>
      147. 122. 159.</_>
    <_>
      131. 104. 145.</_>
    <_>
      155. 127. 162.</_>
    <_>
      147. 119. 159.</_>
    <_>
      81. 69. 106.</_>
    <_>
      87. 77. 112.</_>
    <_>
      83. 74. 107.</_>
    <_>
      172. 143. 176.</_>
    <_>
      150. 125. 163.</_>
    <_>
      134. 113. 150.</_>
    <_>
      95. 77. 122.</_>
    <_>
      105. 98. 111.</_>
    <_>
      113. 109. 126.</_>
    <_>
      111. 107. 124.</_>
    <_>
      63. 62. 93.</_>
    <_>
      89. 86. 112.</_>
    <_>
      92. 89. 115.</_>
    <_>
      95. 92. 118.</_>
    <_>
      98. 94. 114.</_>
    <_>
      71. 69. 97.</_>
    <_>
      84. 81. 107.</_>
    <_>
      86. 84. 109.</_>
    <_>
      83. 81. 105.</_>
    <_>
      108. 104. 123.</_>
    <_>
      99. 95. 115.</_>
    <_>
      77. 74. 101.</_>
    <_>
      74. 71. 100.</_>
    <_>
      163. 160. 166.</_>
    <_>
      73. 70. 98.</_>
    <_>
      47. 46. 65.</_>
    <_>
      94. 92. 111.</_>
    <_>
      86. 83. 105.</_>
    <_>
      142. 139. 148.</_>
    <_>
      73. 73. 89.</_>
    <_>
      73. 70. 87.</_>
    <_>
      48. 52. 62.</_>
    <_>
      120. 116. 131.</_>
    <_>
      130. 127. 142.</_>
    <_>
      151. 148. 163.</_>
    <_>
      112. 111. 125.</_>
    <_>
      103. 103. 117.</_>
    <_>
      156. 153. 168.</_>
    <_>
      147. 144. 159.</_>
    <_>
      132. 130. 145.</_>
    <_>
      134. 131. 146.</_>
    <_>
      145. 142. 157.</_>
    <_>
      148. 145. 160.</_>
    <_>
      120. 120. 134.</_>
    <_>
      72. 77. 86.</_>
    <_>
      79. 80. 104.</_>
    <_>
      108. 111. 125.</_>
    <_>
      119. 122. 136.</_>
    <_>
      69. 78. 89.</_>
    <_>
      86. 92. 110.</_>
    <_>
      118. 121. 135.</_>
    <_>
      117. 120. 134.</_>
    <_>
      109. 112. 128.</_>
    <_>
      127. 130. 144.</_>
    <_>
      141. 144. 159.</_>
    <_>
      150. 153. 167.</_>
    <_>
      110. 113. 128.</_>
    <_>
      144. 146. 161.</_>
    <_>
      134. 137. 152.</_>
    <_>
      130. 133. 148.</_>
    <_>
      128. 131. 146.</_>
    <_>
      92. 94. 112.</_>
    <_>
      104. 107. 122.</_>
    <_>
      135. 138. 153.</_>
    <_>
      114. 118. 133.</_>
    <_>
      64. 68. 86.</_>
    <_>
      105. 108. 124.</_>
    <_>
      127. 130. 145.</_>
    <_>
      94. 94. 112.</_>
    <_>
      98. 99. 117.</_>
    <_>
      94. 96. 114.</_>
    <_>
      125. 128. 143.</_>
    <_>
      74. 71. 89.</_>
    <_>
      75. 72. 90.</_>
    <_>
      131. 134. 149.</_>
    <_>
      132. 135. 150.</_>
    <_>
      118. 121. 136.</_>
    <_>
      70. 75. 90.</_>
    <_>
      86. 90. 105.</_>
    <_>
      94. 98. 116.</_>
    <_>
      106. 110. 127.</_>
    <_>
      89. 95. 124.</_>
    <_>
      63. 68. 101.</_>
    <_>
      5. 5. 65.</_>
    <_>
      113. 115. 149.</_>
    <_>
      5. 4. 46.</_>
    <_>
      3. 2. 44.</_>
    <_>
      4. 3. 43.</_>
    <_>
      9. 6. 45.</_>
    <_>
      81. 82. 116.</_>
    <_>
      29. 32. 100.</_>
    <_>
      48. 45. 15.</_>
    <_>
      31. 29. 1.</_>
    <_>
      23. 25. 2.</_>
    <_>
      18. 15. 10.</_>
    <_>
      17. 11. 28.</_>
    <_>
      30. 20. 44.</_>
    <_>
      32. 21. 50.</_>
    <_>
      28. 17. 43.</_>
    <_>
      30. 18. 46.</_>
    <_>
      30. 24. 49.</_>
    <_>
      53. 44. 65.</_>
    <_>
      68. 132. 154.</_>
    <_>
      45. 101. 140.</_>
    <_>
      201. 200. 192.</_>
    <_>
      186. 194. 192.</_>
    <_>
      175. 188. 187.</_>
    <_>
      176. 187. 186.</_>
    <_>
      179. 189. 188.</_>
    <_>
      165. 181. 180.</_>
    <_>
      169. 183. 182.</_>
    <_>
      188. 193. 196.</_>
    <_>
      32. 25. 28.</_>
    <_>
      9. 15. 20.</_>
    <_>
      13. 17. 22.</_>
    <_>
      23. 21. 21.</_>
    <_>
      25. 10. 24.</_>
    <_>
      30. 16. 20.</_>
    <_>
      30. 18. 18.</_>
    <_>
      21. 20. 22.</_>
    <_>
      16. 24. 23.</_>
    <_>
      23. 20. 22.</_>
    <_>
      28. 26. 26.</_>
    <_>
      14. 13. 23.</_>
    <_>
      12. 14. 24.</_>
    <_>
      89. 106. 149.</_>
    <_>
      85. 105. 146.</_>
    <_>
      81. 102. 140.</_>
    <_>
      89. 108. 146.</_>
    <_>
      93. 108. 154.</_>
    <_>
      95. 114. 151.</_>
    <_>
      108. 129. 161.</_>
    <_>
      103. 123. 158.</_>
    <_>
      115. 136. 167.</_>
    <_>
      113. 136. 158.</_></support_vectors>
  <decision_functions>
    <_>
      <sv_count>492</sv_count>
      <rho>-1.9030228399989790e+00</rho>
      <alpha>
        1.0000000000000001e-01 1.0000000000000001e-01
        1.0000000000000001e-01 1.0000000000000001e-01
        1.0000000000000001e-01 1.0000000000000001e-01
        1.0000000000000001e-01 1.0000000000000001e-01
        1.0000000000000001e-01 1.0000000000000001e-01
        1.4954000321750023e-02 1.6662293829556005e-02
        9.9491889556110411e-03 7.2805334474303259e-03
        5.9519962970260637e-03 1.4721674058804042e-02
        1.8225887724380999e-02 1.9122639810770763e-02
        9.9433693173582669e-03 1.5870683913952716e-02
        1.0986785327462733e-02 3.7859477855627578e-02
        2.0915213197486699e-02 1.7592356170723720e-02
        2.1961043090933666e-02 1.0594159547285509e-02
        4.4472701206100258e-02 9.9671680503216134e-03
        4.1512502506814430e-03 1.7925056620637050e-02
        2.0278139431677160e-02 4.0271997244910013e-02
        3.0358691766586593e-02 1.3402021493977725e-02
        1.9115932572045351e-02 2.1729351487443892e-02
        1.8981005304174188e-02 7.1156014644891963e-03
        8.8439296957540051e-03 2.4680574992184175e-02
        1.0451361633100783e-02 1.9803116221824166e-02
        4.3837304238231803e-02 1.9546151804691162e-02
        2.4384166445203928e-02 1.0738632153515875e-02
        1.4698272564503904e-02 8.9810548511512159e-03
        1.9946840842861625e-02 1.0593907352865414e-02
        2.1324626238242703e-02 2.1378535552694630e-02
        1.0155308349049555e-02 1.3594705466390414e-02
        1.0923863875143821e-02 1.2430978117381303e-02
        1.2878449232388345e-02 1.6064389010805535e-02
        1.0859511543543107e-02 2.3483594387527694e-02
        2.4891806835325908e-02 1.9339539092122687e-02
        1.9089928975833503e-02 8.4813135328958393e-03
        1.0000000000000001e-01 8.4564696705411984e-03
        1.0937114392972904e-02 2.5416412345279242e-02
        3.2099033388804661e-02 1.0828511000356325e-02
        2.0123170533653631e-02 1.7055091869433721e-02
        2.0204375229390580e-02 9.1221917540410258e-03
        1.6117754374703235e-02 2.2876627172308046e-02
        2.2419607918777680e-02 1.6951533995820094e-02
        8.1104823604802173e-03 2.1338886463576578e-02
        1.7414382856215636e-02 1.3074780374505655e-02
        2.4263871186586926e-02 6.9147810288392772e-02
        7.9516992314260002e-02 1.6405456745857548e-02
        2.0452038976181662e-02 2.7265303099390324e-02
        5.7319793895042062e-02 3.4867644886685353e-02
        2.4060832790838288e-02 1.8620798382885707e-02
        2.2411936191376408e-02 2.3532560086628726e-02
        2.9160338774472661e-02 1.6097678237765270e-02
        1.3587615027740876e-02 2.5988137480537635e-02
        1.0200349033139254e-02 3.4767221997165275e-02
        8.4564756553959838e-03 7.1901704915153805e-03
        5.6357687885941997e-03 1.8471250126271016e-02
        1.9922623274600475e-02 4.2029095772410791e-02
        1.0540470966746603e-02 1.3639744510114118e-02
        6.7356396152281625e-03 9.6181974745748466e-03
        1.1649624313305207e-02 9.9547862223992728e-03
        9.7966082431924104e-02 1.6753094532213436e-02
        1.3664511430472507e-02 2.2531214761783314e-02
        4.8174591107055950e-02 1.0560513793485720e-02
        3.7326247120083367e-02 1.1917984463702147e-02
        1.5463455900647996e-02 2.2549099115029093e-02
        9.9080756479141170e-03 1.0000000000000001e-01
        1.2011127889560557e-02 7.7356905618673893e-03
        6.4822822806031175e-02 1.5847750908776142e-02
        9.6822534532452417e-03 1.3067797781358926e-02
        2.0845413196261042e-02 5.0377853396790517e-03
        1.0000000000000001e-01 3.0658826507664348e-02
        1.0000000000000001e-01 1.0000000000000001e-01
        1.0360689906915231e-02 2.1303011993057491e-02
        1.3044896706173592e-02 1.9271950187992500e-02
        2.8705085632648918e-02 2.1586950562712905e-02
        2.4522477239639764e-02 2.3429296586270472e-02
        1.0000000000000001e-01 1.1749680464619699e-02
        1.0330129106382325e-02 2.4987011258735009e-02
        4.6480104126649407e-02 2.8326415371793520e-02
        4.5396206336548527e-02 2.7224340793059364e-02
        1.6889364462473831e-02 6.8114712929229243e-02
        4.4510020464236140e-02 1.1685598635781162e-02
        1.0000000000000001e-01 6.1742362295974365e-02
        1.1093719522853740e-02 1.0531528334041808e-02
        1.0000000000000001e-01 7.5052518273223859e-02
        8.8377151248907382e-02 6.2565554251962405e-02
        9.5193163656810062e-03 2.9406563533726674e-02
        1.0727430041754599e-02 1.0000000000000001e-01
        1.0980781209959281e-02 4.2720010346799418e-02
        1.0000000000000001e-01 2.1292184181067538e-02
        1.2450885366192974e-02 1.0000000000000001e-01
        3.4144837051565194e-02 1.1436230660309001e-02
        1.2553344228962435e-02 3.8888751540229541e-02
        2.2684136389152260e-02 9.2354278988344921e-03
        1.3043366325236378e-02 7.9910030693986101e-03
        3.3101459353589401e-02 2.4322205816175016e-02
        4.5850606844937344e-02 9.3829021612809264e-03
        9.7282004482462502e-03 8.0884147326384468e-03
        3.8739206577518781e-02 1.5771911873048140e-02
        1.4205496593969023e-02 9.5395505501674766e-03
        1.4495964260739649e-02 2.5492283518266538e-02
        2.2056490179701328e-02 1.8060045856582638e-02
        1.8324472806734014e-02 2.2039503121630423e-02
        4.6424696040075174e-02 6.6383682357994880e-03
        1.0000000000000001e-01 6.7587990162787562e-02
        1.0000000000000001e-01 4.2281395856575338e-02
        6.5312798913667643e-03 1.0000000000000001e-01
        1.0000000000000001e-01 1.0000000000000001e-01
        1.0000000000000001e-01 1.0000000000000001e-01
        1.0000000000000001e-01 1.0000000000000001e-01
        3.1144746103417477e-02 1.0000000000000001e-01
        1.0000000000000001e-01 5.7919729920569755e-02
        1.9025557965358576e-02 1.0594914851823492e-02
        8.3012037097815756e-03 1.1974424173932657e-02
        1.2592650605927225e-02 1.7212943029273578e-02
        4.7077149993371273e-02 6.8619962002098925e-03
        2.6183559626809925e-02 9.7697359691139782e-02
        4.9900744263088534e-02 3.4303955745331613e-02
        1.8672787429730362e-02 1.0956892504128525e-02
        7.2147287845983586e-03 1.2873173493400726e-02
        3.2290424485854570e-02 2.0546896505202306e-02
        1.0459797102617263e-02 1.1773599190224922e-02
        1.0000000000000001e-01 1.0000000000000001e-01
        1.0547713791876523e-02 5.3174671002486533e-03
        9.8902390666330414e-03 4.7352225811186595e-02
        8.6487992747243288e-03 1.0000000000000001e-01
        5.7618784256403821e-02 3.5316616266680062e-02
        4.8999506539712558e-02 5.7625918729696628e-02
        1.1979388526717746e-02 5.8559297030413614e-03
        8.2274948711177527e-03 1.0000000000000001e-01
        1.1683444653642266e-02 1.0029344657096239e-02
        1.0000000000000001e-01 2.6785100920028976e-02
        1.4383104272531311e-02 1.9856588399904944e-02
        2.1810079094801392e-02 1.7042571682925538e-02
        3.9273267254781453e-02 2.4067280686326312e-02
        1.7641790307316441e-03 1.3309345960538725e-02
        1.0000000000000001e-01 2.8536597583054973e-02
        1.2302211851833994e-02 1.6495299318204076e-02
        1.7033054427115193e-02 7.0395809446276384e-03
        1.0272494166449623e-02 6.8454263390424847e-02
        1.0000000000000001e-01 2.2269247907733852e-02
        1.0000000000000001e-01 1.0935535907143488e-02
        3.7940558117009353e-02 1.1087868943499004e-02
        9.8806408102185397e-02 5.3362985723274775e-02
        1.2459513272657586e-02 3.2758636693773532e-02
        8.8842631151300460e-03 1.1630705013444207e-02
        6.9369960550556761e-02 1.0607282454042882e-02
        1.6642576336394325e-02 1.5005557443725307e-02
        7.7883356290680671e-03 9.7686026903651170e-03
        1.1385528886715967e-02 2.0216214124767408e-02
        1.7973111690620228e-02 1.1860950336509680e-02
        1.3490663659114905e-02 1.2537900039587737e-02
        1.0368283619682497e-02 3.0614779761240156e-02
        8.0168691522062643e-03 6.1351776570554867e-03
        1.3794811974735310e-02 1.8113244123784809e-02
        1.0567275712442557e-02 1.9297088282588876e-02
        1.4653745765584392e-02 1.0515558127616032e-02
        3.1852431263230542e-02 2.0593573324890681e-02
        -1.2737321386680373e-02 -7.3438435894097834e-02
        -1.9741737279803565e-02 -1.9548936297358280e-02
        -7.7613376684272428e-02 -4.5562489339835879e-02
        -1.0000000000000001e-01 -4.0144252308962756e-02
        -6.9792535798068295e-02 -1.8375686737331958e-02
        -2.0372609352009324e-02 -3.2814483555973675e-02
        -1.3689396781564661e-02 -3.0614779761240156e-02
        -2.0263056741964863e-02 -9.7865523432864879e-02
        -9.8347758801599572e-02 -1.0000000000000001e-01
        -1.0000000000000001e-01 -1.0000000000000001e-01
        -1.0000000000000001e-01 -1.0000000000000001e-01
        -1.0000000000000001e-01 -1.0000000000000001e-01
        -2.7228363297948956e-02 -1.1413220267668590e-02
        -5.2858691873182134e-03 -3.1503843861809586e-02
        -1.0549457948842289e-02 -1.8225887724380999e-02
        -1.8672787429730362e-02 -3.8388199236977512e-02
        -1.4376847563880012e-02 -5.6308993698008292e-02
        -7.5602130266026080e-02 -1.0000000000000001e-01
        -6.4513861779250711e-02 -1.6345708588181768e-02
        -5.9106144079176887e-02 -9.4455773011039839e-03
        -8.9461099816448651e-03 -5.3779599841687141e-02
        -7.1947594663172177e-03 -3.0630829747431046e-02
        -1.3929824838477853e-02 -1.4726642684626774e-02
        -1.6201893129988112e-02 -1.0000000000000001e-01
        -1.6753094532213436e-02 -3.0628712001847771e-02
        -1.0000000000000001e-01 -1.0000000000000001e-01
        -1.0000000000000001e-01 -7.7356905618673893e-03
        -1.0000000000000001e-01 -1.0000000000000001e-01
        -1.0000000000000001e-01 -1.0000000000000001e-01
        -1.7730512998786231e-02 -1.0000000000000001e-01
        -1.0000000000000001e-01 -1.0000000000000001e-01
        -1.0000000000000001e-01 -1.0000000000000001e-01
        -1.0000000000000001e-01 -1.0000000000000001e-01
        -1.0000000000000001e-01 -1.0000000000000001e-01
        -1.0000000000000001e-01 -2.0031447857557685e-02
        -1.0000000000000001e-01 -1.0000000000000001e-01
        -1.0000000000000001e-01 -1.0000000000000001e-01
        -1.0000000000000001e-01 -1.0000000000000001e-01
        -1.0000000000000001e-01 -1.0000000000000001e-01
        -1.0000000000000001e-01 -1.0000000000000001e-01
        -1.0000000000000001e-01 -1.0000000000000001e-01
        -1.0000000000000001e-01 -1.0000000000000001e-01
        -1.0000000000000001e-01 -1.0000000000000001e-01
        -1.0000000000000001e-01 -1.0000000000000001e-01
        -5.8832515602304118e-02 -1.0000000000000001e-01
        -1.0000000000000001e-01 -1.0000000000000001e-01
        -2.7673618009272396e-02 -1.0000000000000001e-01
        -1.0000000000000001e-01 -1.0000000000000001e-01
        -1.0000000000000001e-01 -1.0000000000000001e-01
        -1.0000000000000001e-01 -1.0000000000000001e-01
        -1.0000000000000001e-01 -1.0000000000000001e-01
        -1.0000000000000001e-01 -1.0000000000000001e-01
        -1.0000000000000001e-01 -1.0000000000000001e-01
        -1.0000000000000001e-01 -1.0000000000000001e-01
        -1.0000000000000001e-01 -5.8456303089014831e-02
        -9.1298793637662520e-03 -6.4031970201650973e-03
        -8.1705809686565198e-03 -9.4848000343182040e-02
        -4.4708664763997985e-02 -7.2115742872529880e-03
        -1.7364294748592597e-02 -6.1031430437414623e-02
        -1.0178684319361619e-02 -1.7592356170723720e-02
        -9.1446276708277326e-03 -1.0531528334041808e-02
        -1.7925056620637050e-02 -2.1961043090933666e-02
        -5.6201295785713395e-02 -4.9120961197479662e-03
        -5.9739695551700861e-03 -6.5802204256384693e-03
        -1.0000920435253807e-02 -1.3490663659114905e-02
        -1.3065995670351705e-02 -1.0679439104587884e-02
        -1.8444633277677508e-02 -3.6385351372563719e-02
        -1.4773257880577423e-02 -3.4909140655428897e-02
        -3.3351412605804605e-02 -1.0000000000000001e-01
        -6.3265311049854056e-02 -1.8503764197029759e-02
        -3.8449670625346252e-02 -9.3151897816619762e-03
        -3.6155694237885956e-02 -1.6642576336394325e-02
        -1.8471250126271016e-02 -1.5297779240273529e-02
        -2.7802843394927834e-02 -6.3186786393873609e-02
        -1.0540470966746603e-02 -6.5831517708160966e-02
        -2.4322205816175016e-02 -4.1521922936755690e-03
        -2.0964916616491983e-02 -3.1852431263230542e-02
        -8.1419385226658390e-03 -1.4750958237518017e-02
        -1.1656488849857963e-02 -1.4457971111968421e-02
        -2.2077762078436928e-02 -9.4780005551695815e-02
        -6.3894222474684570e-02 -1.3996173605700817e-02
        -5.4589353164954738e-02 -1.7973468647140722e-02
        -3.7900614211888096e-02 -4.4830449721319825e-02
        -1.8323045136241167e-02 -3.8976002995472207e-02
        -7.3313753198949120e-03 -1.2456783561419963e-02
        -1.3706276420314146e-02 -1.0000000000000001e-01
        -7.5809329711561116e-03 -1.7311859392678403e-02
        -7.3112509816558903e-03 -4.9571545161898059e-02
        -8.5890940568540998e-03 -2.1844362719546033e-02
        -1.7055091869433721e-02 -3.5108595436704242e-02
        -3.5816881720981686e-02 -1.7988363877702186e-02
        -4.9732939726034195e-02 -1.1144387625994805e-02</alpha>
      <index>
        0 1 490 489 488 487 486 484 483 482 473 458 457 456 455 454 453
        452 451 450 449 437 436 435 434 433 432 431 430 429 428 427 426
        425 424 423 422 421 420 419 418 417 416 415 414 413 412 411 410
        409 408 407 406 405 404 403 402 401 400 399 398 397 396 395 394
        393 392 391 390 389 388 387 386 385 384 383 382 381 380 379 378
        377 376 375 374 373 372 371 370 369 368 367 366 365 364 344 343
        342 341 340 339 338 337 336 335 334 333 332 331 330 329 328 327
        326 13 14 15 16 17 325 324 323 322 321 320 319 318 317 316 315
        314 313 312 311 310 309 308 307 306 305 304 303 302 301 300 299
        298 297 296 295 294 293 292 291 290 289 288 287 286 285 284 283
        282 281 280 279 278 277 276 275 274 273 272 271 270 269 268 267
        266 265 264 263 262 261 260 259 258 257 256 255 254 253 252 251
        250 249 248 247 246 245 244 243 242 241 240 239 238 237 236 235
        234 233 232 231 230 229 228 227 226 225 224 223 222 221 220 219
        218 217 216 215 214 213 104 103 102 101 100 99 98 97 96 95 94 93
        92 91 90 89 88 87 86 85 84 83 82 81 80 79 78 77 76 75 74 73 72
        71 70 69 68 67 66 65 64 63 62 61 60 59 58 57 56 55 54 53 52 51
        50 49 48 18 19 20 21 22 23 24 25 26 47 46 45 44 43 42 41 40 39
        38 27 28 29 30 31 32 33 34 35 36 37 105 106 107 108 109 110 111
        112 113 114 115 116 117 118 119 120 121 122 123 124 125 126 127
        128 129 130 131 132 133 134 135 136 137 138 139 140 141 142 143
        144 145 146 147 148 149 150 151 152 153 154 155 156 157 158 159
        160 161 162 163 164 165 166 167 168 169 170 171 172 173 174 175
        176 177 178 179 180 181 182 183 184 185 186 187 188 189 190 191
        192 193 194 195 196 197 198 199 200 201 202 203 204 205 206 207
        208 209 210 211 212 12 11 10 9 8 7 6 5 4 3 2 345 346 347 348 349
        350 351 352 353 354 355 356 357 358 359 360 361 362 363 438 439
        440 441 442 443 444 445 446 447 448 459 460 461 462 463 464 465
        466 467 468 469 470 471 472 474 475 476 477 478 479 480 481 485
        491</index></_></decision_functions></opencv_ml_svm>
</opencv_storage>
